35 24
26 -0.09065 -0.0235092 0.228018 -0.147442 -0.0587865 -0.115751 -0.164139 0.0988632 -0.16545 0.148655 -0.133771 -0.101627 0.0151141 0.0572094 -0.0247412 -0.190818 -0.0893416 0.0513124 -0.0161246 0.0789042 -0.167395 0.0561633 0.0681627 0.172691
32 -0.198032 -0.0247132 0.358735 -0.274345 -0.0756193 -0.2418 -0.229693 0.120716 -0.255891 0.219536 -0.191412 -0.171446 0.0617562 0.125817 -0.0172084 -0.310758 -0.132793 0.106604 -0.0631315 0.145082 -0.260225 0.0963397 0.0961745 0.27118
33 -0.19522 -0.0125785 0.364449 -0.303313 -0.125652 -0.234207 -0.225813 0.15203 -0.3057 0.268153 -0.199164 -0.194642 0.0479152 0.147378 0.00296151 -0.310338 -0.117605 0.125259 -0.0256103 0.220212 -0.308714 0.111668 0.136298 0.28224
29 -0.0866831 0.00714218 0.181873 -0.160474 -0.0351469 -0.0992536 -0.129923 0.0753933 -0.121415 0.131626 -0.12591 -0.0715252 0.0165153 0.0758664 0.000175169 -0.188943 -0.0889905 0.0637686 -0.0321022 0.0720434 -0.143291 0.0326058 0.0330685 0.152125
34 -0.282833 -0.0620688 0.538255 -0.389374 -0.124583 -0.340466 -0.401686 0.19717 -0.352265 0.273124 -0.350962 -0.171455 0.0553439 0.121509 -0.0422349 -0.5058 -0.245784 0.145863 -0.115755 0.166702 -0.37092 0.113399 0.114651 0.414847
0 -0.270082 0.0222642 0.44304 -0.348746 -0.136118 -0.262346 -0.326258 0.134602 -0.348982 0.302569 -0.301675 -0.193621 0.107849 0.148579 0.0448577 -0.402433 -0.122301 0.132757 -0.0775263 0.230221 -0.3604 0.155096 0.16293 0.366174
9 -0.070145 0.0122696 0.138012 -0.113949 -0.0335457 -0.106722 -0.0886219 0.0519754 -0.129024 0.0973043 -0.087369 -0.0737589 0.0381524 0.0568575 -0.0223788 -0.134815 -0.0614974 0.032395 -0.0163843 0.0720368 -0.128017 0.024981 0.0502959 0.103716
30 -0.131165 0.0101752 0.191355 -0.151256 -0.0361151 -0.137209 -0.154389 0.0910424 -0.14539 0.141514 -0.106088 -0.0836667 0.0297735 0.0481672 0.014913 -0.207909 -0.0955491 0.0570438 -0.0245476 0.0904916 -0.148092 0.041291 0.0528493 0.144108
3 -0.117021 -0.0248893 0.24057 -0.159545 -0.0772616 -0.162047 -0.163015 0.0860926 -0.173881 0.145299 -0.138061 -0.100065 0.0254413 0.0800899 -0.0241352 -0.217192 -0.0972797 0.07067 -0.0395861 0.107812 -0.169874 0.0780732 0.0686751 0.168597
8 -0.125281 -0.0391213 0.273482 -0.190852 -0.0485509 -0.167573 -0.204606 0.105357 -0.203208 0.167738 -0.159224 -0.0919392 0.0483364 0.0489148 -0.038158 -0.275033 -0.133695 0.0889378 -0.0610854 0.111534 -0.224243 0.0583388 0.0618862 0.222434
16 -0.0682896 -0.00362018 0.13389 -0.097508 -0.0246894 -0.0624394 -0.0901875 0.029376 -0.0939751 0.0647054 -0.091392 -0.0763961 0.031262 0.0437767 0.0111768 -0.133811 -0.0510847 0.026749 -0.00279721 0.0734869 -0.108876 0.0404063 0.0534353 0.0786079
28 -0.11475 0.0114136 0.196917 -0.157717 -0.0734244 -0.133801 -0.132176 0.0795288 -0.145664 0.121635 -0.136711 -0.0768881 0.0540596 0.0762242 -0.0190243 -0.200212 -0.0753567 0.0519841 -0.0168386 0.111039 -0.174786 0.0375046 0.0758265 0.167307
18 -0.109791 -0.0128625 0.218323 -0.125689 -0.0414 -0.11359 -0.152563 0.0704199 -0.149072 0.109461 -0.151486 -0.0737743 0.0262674 0.026102 -3.35794e-05 -0.178543 -0.104255 0.0500884 -0.0614876 0.0737032 -0.166879 0.0520313 0.0460465 0.171295
21 -0.0428417 0.00869969 0.0931881 -0.0887664 -0.0301875 -0.0511922 -0.0742829 0.0407242 -0.0604198 0.0776703 -0.0469084 -0.0539173 0.0309322 0.0473587 -0.021047 -0.110198 -0.0627556 0.0271513 -0.0222431 0.0327717 -0.0761038 0.0356696 0.0443732 0.0691188
5 -0.112898 -0.0208486 0.238222 -0.177831 -0.0431444 -0.158146 -0.142698 0.0663816 -0.147355 0.128056 -0.132276 -0.0914647 0.0318141 0.0624438 0.0107227 -0.22043 -0.0853765 0.0630253 -0.0361348 0.10621 -0.151949 0.0378806 0.0766254 0.166851
11 -0.11808 -0.0222131 0.256232 -0.193186 -0.0756336 -0.170504 -0.167414 0.0948382 -0.178946 0.134406 -0.173931 -0.0825914 0.0491411 0.0809836 -0.0314866 -0.225158 -0.126914 0.0917744 -0.0377057 0.111207 -0.203619 0.0382896 0.0540551 0.190437
25 -0.0776085 0.00671249 0.174323 -0.113007 -0.0261344 -0.10182 -0.10698 0.0515501 -0.123368 0.109466 -0.0953322 -0.0690751 0.0227665 0.0611402 -0.021876 -0.135095 -0.0771102 0.0451502 -0.0426641 0.0946983 -0.12173 0.0431341 0.0508372 0.120319
2 -0.0914745 0.00764798 0.219566 -0.14727 -0.065467 -0.108254 -0.145088 0.0725527 -0.151523 0.105266 -0.105693 -0.0995056 0.0418783 0.0407146 -0.0230049 -0.169869 -0.0717731 0.0782898 -0.0195365 0.089035 -0.142534 0.0450851 0.0608714 0.172476
14 -0.109591 -0.0233757 0.193172 -0.119754 -0.0531446 -0.108289 -0.134387 0.0627008 -0.118052 0.114185 -0.10527 -0.0836399 0.020716 0.0450225 -0.00205155 -0.150275 -0.0520265 0.0637307 -0.0238592 0.0922488 -0.132483 0.0590668 0.0562288 0.148125
20 -0.0772831 -0.0198177 0.126873 -0.101842 -0.0223769 -0.10777 -0.102929 0.0357229 -0.124997 0.0905855 -0.0935676 -0.0783094 0.020282 0.0508647 0.0132449 -0.116334 -0.0523704 0.0355169 -0.0193197 0.0625539 -0.0913011 0.0322401 0.061148 0.129431
13 -0.110322 -0.0114391 0.201313 -0.153741 -0.036123 -0.147242 -0.175992 0.0633853 -0.138136 0.122828 -0.144353 -0.0786344 0.0197662 0.0304018 -0.0196874 -0.214286 -0.108664 0.0518397 -0.0611449 0.0801763 -0.147897 0.0526418 0.0597016 0.160468
1 -0.0973513 -0.022704 0.222516 -0.161307 -0.0663666 -0.137162 -0.140078 0.0927533 -0.179657 0.155266 -0.134841 -0.096071 0.0297648 0.0641493 -0.00698381 -0.223854 -0.0951149 0.0474296 -0.0325679 0.100102 -0.181471 0.0401103 0.0496146 0.156397
7 -0.179731 -0.0210893 0.347367 -0.288932 -0.0930899 -0.247366 -0.257475 0.114715 -0.245611 0.196223 -0.204699 -0.146277 0.0764718 0.111014 -0.0059842 -0.313191 -0.155103 0.124515 -0.0542375 0.161708 -0.249982 0.0747092 0.0921141 0.276954
17 -0.203823 -0.020766 0.422892 -0.311273 -0.104409 -0.238861 -0.304713 0.163391 -0.267104 0.222669 -0.276749 -0.175882 0.0686824 0.0943994 -0.0320288 -0.396806 -0.159372 0.141356 -0.0806027 0.152268 -0.293198 0.0917785 0.105463 0.336631
4 -0.12464 -0.0167248 0.201445 -0.153249 -0.0420186 -0.125841 -0.141273 0.0947738 -0.134186 0.139011 -0.111302 -0.104301 0.0368532 0.0529153 -0.0220117 -0.182344 -0.0677538 0.0480356 -0.0525529 0.0886431 -0.167115 0.0574713 0.0513662 0.16656
27 -0.0873664 -0.0263654 0.167029 -0.110997 -0.0452218 -0.120213 -0.130191 0.0691701 -0.132459 0.109893 -0.0921605 -0.0563431 0.022477 0.0329988 -0.00481097 -0.160848 -0.0505674 0.061163 -0.0187104 0.0914042 -0.120249 0.0321294 0.0279812 0.137816
31 -0.0878611 -0.0203303 0.146428 -0.106194 -0.0504289 -0.0795203 -0.0912938 0.0456788 -0.0992874 0.0868072 -0.0969183 -0.0850839 0.0198416 0.0286776 -0.0107929 -0.14212 -0.080325 0.0323878 -0.0212438 0.0646597 -0.0983609 0.0225565 0.0238781 0.111995
22 -0.0887792 -0.0360961 0.193495 -0.134117 -0.0334476 -0.134314 -0.157233 0.0748615 -0.104301 0.114856 -0.133756 -0.04569 0.0297668 0.0222389 -0.0302916 -0.181405 -0.0745843 0.0459458 -0.0492758 0.0612702 -0.137599 0.052927 0.0642411 0.134494
19 -0.0756543 -0.00447668 0.126301 -0.0928223 -0.0327883 -0.0957775 -0.0758277 0.0461551 -0.0880226 0.0658014 -0.0722055 -0.0542573 0.0280665 0.0381882 0.00855873 -0.0996766 -0.0670949 0.0316242 -0.00535297 0.0733107 -0.0926961 0.0269763 0.0549198 0.084864
6 -0.117023 -0.0283242 0.254571 -0.184785 -0.0844432 -0.159162 -0.171975 0.0772611 -0.165198 0.162416 -0.153003 -0.117087 0.0249969 0.059031 -0.0262024 -0.241442 -0.123909 0.0933403 -0.0645703 0.118897 -0.182715 0.0593169 0.0601491 0.191992
12 -0.0755316 -0.0284169 0.147993 -0.120341 -0.0345219 -0.0969165 -0.129222 0.0615598 -0.108363 0.10344 -0.0894215 -0.0521056 0.0334757 0.0308142 -0.019772 -0.166472 -0.0756639 0.057696 -0.0543299 0.0423694 -0.130758 0.0377283 0.0509078 0.150059
15 -0.0544148 0.0106118 0.103317 -0.07524 -0.0397226 -0.0813769 -0.066085 0.0260957 -0.06755 0.0886441 -0.0818281 -0.0533147 0.0088806 0.0254777 0.0179533 -0.0767745 -0.0398557 0.0478732 0.00223517 0.0640833 -0.0985004 0.0309881 0.0277837 0.077795
10 -0.058631 0.0168411 0.15153 -0.0946391 -0.0305643 -0.0895612 -0.0913796 0.053065 -0.117112 0.0973052 -0.0842026 -0.0831423 0.00901531 0.026368 0.00584752 -0.134112 -0.0701894 0.0375021 -0.0174633 0.0554534 -0.102383 0.0370506 0.0531454 0.0950406
23 -0.066584 -0.00880499 0.102358 -0.068285 -0.0241794 -0.0660103 -0.0683158 0.0544619 -0.0712939 0.0802535 -0.056571 -0.0374297 0.0344362 0.0170637 -0.00242872 -0.108347 -0.0287508 0.031739 -0.0208398 0.0505075 -0.0862995 0.0207036 0.0362005 0.0902611
24 -0.0815289 -0.0257152 0.136453 -0.131213 -0.0354878 -0.0852668 -0.0962601 0.0604811 -0.134871 0.0970306 -0.0861805 -0.0561348 0.0230508 0.0544306 0.0125768 -0.131715 -0.0635978 0.0587244 -0.0103399 0.0812104 -0.125652 0.0433351 0.0552267 0.116278
