35 24
27 -0.124712 -0.118167 0.0538487 -0.125569 0.0220897 0.0997052 0.046861 0.181558 0.0359969 -0.106323 -0.0412846 0.021036 0.0635709 0.0101423 -0.137472 0.137907 -0.0232895 0.0730243 0.00465357 0.0242412 0.0195779 -0.215032 0.0303725 -0.110265
34 -0.449967 -0.350263 0.0358176 -0.274664 0.101401 0.325826 0.0923854 0.468857 0.177053 -0.310168 -0.04165 0.0454522 0.245209 0.0103368 -0.41456 0.386835 -0.0736568 0.301566 0.0615814 0.0343794 0.0486097 -0.545318 0.115311 -0.235084
0 -0.317206 -0.210456 0.186734 -0.225161 0.113412 0.20173 0.0782689 0.390937 0.0748868 -0.220726 -0.0725474 0.133158 0.204097 0.0738434 -0.369961 0.325696 -0.037695 0.216959 -0.0660035 0.000618566 0.000591924 -0.479368 0.109037 -0.223296
3 -0.260865 -0.199984 0.0960941 -0.193175 0.0428293 0.166996 0.074804 0.262529 0.100391 -0.182097 -0.060495 0.0706292 0.114402 0.0334244 -0.267126 0.256095 -0.0425985 0.141063 -0.0239618 0.0206625 0.00457032 -0.390062 0.0760945 -0.160752
9 -0.10655 -0.116078 0.055098 -0.0829853 0.011735 0.0737561 0.0312146 0.15659 0.0423468 -0.069996 -0.0311674 0.0376925 0.0851027 0.0309574 -0.132294 0.134999 -0.00449928 0.0563247 0.00375418 -0.00348778 0.00380995 -0.215748 0.0205515 -0.0713622
33 -0.240842 -0.207888 0.210806 -0.199959 0.0500733 0.1329 0.0564167 0.338258 0.0998538 -0.193276 -0.0574784 0.10329 0.176641 0.0905912 -0.296659 0.289097 -0.0269706 0.144792 -0.0355511 0.0360856 -0.000356032 -0.459758 0.0932164 -0.228489
32 -0.256726 -0.222174 0.13641 -0.224121 0.0503889 0.169899 0.0468374 0.331497 0.0912042 -0.199554 -0.0475159 0.0910996 0.138295 0.0734268 -0.309622 0.298565 -0.0168246 0.152442 -0.0253962 0.0165831 -0.00797529 -0.430007 0.0707676 -0.205767
29 -0.124621 -0.0999529 0.0535283 -0.0970117 0.0247397 0.0715863 0.0382477 0.14855 0.027639 -0.0644975 -0.0342343 0.0546653 0.0573942 0.0180809 -0.147717 0.117563 -0.0297469 0.0543919 -0.00294491 0.027664 -0.0070881 -0.164709 0.035396 -0.0984901
13 -0.192126 -0.146413 0.0157483 -0.126948 0.0377707 0.116153 0.0577097 0.183762 0.0525574 -0.12463 -0.00744925 0.04116 0.0718893 -0.00820226 -0.149178 0.155431 -0.00627564 0.134765 -0.00663691 0.00744088 -0.00338737 -0.219424 0.038944 -0.0812401
8 -0.243617 -0.160802 0.0788805 -0.14494 0.0587107 0.150875 0.055549 0.232121 0.0933974 -0.13703 -0.00950541 0.0523186 0.115948 0.0235957 -0.202603 0.215864 -0.0113444 0.15885 0.0182314 0.0262041 0.0257485 -0.288553 0.0579066 -0.126488
15 -0.108991 -0.0634997 0.0718376 -0.0712078 0.0235043 0.0674567 0.0185352 0.103498 0.0421616 -0.0697018 -0.0362197 0.0107855 0.0391894 0.012822 -0.0914 0.103889 -0.0196501 0.0403651 -0.000646578 0.0235785 0.0210716 -0.150778 0.0242924 -0.0696449
12 -0.146067 -0.13557 0.0506129 -0.114968 0.042092 0.0915439 0.0163602 0.184496 0.0469571 -0.0982139 -0.0330607 0.0104672 0.0735079 -0.00625078 -0.144303 0.142606 -0.0209482 0.0915855 0.0205102 0.0326332 0.0194856 -0.213137 0.0222006 -0.095867
7 -0.28601 -0.233265 0.132286 -0.232564 0.078295 0.183734 0.0440061 0.346874 0.116761 -0.192947 -0.0327341 0.0809043 0.148629 0.0450452 -0.287564 0.303997 -0.0261288 0.190464 0.00883337 0.030789 0.0288378 -0.409145 0.103486 -0.18045
17 -0.310563 -0.250621 0.0795874 -0.229416 0.0788939 0.227025 0.0724179 0.334271 0.0847205 -0.211062 -0.0405189 0.0627992 0.144175 0.0442302 -0.317342 0.297594 -0.0197127 0.212209 0.0217322 0.0428591 0.0108228 -0.439474 0.108819 -0.168685
16 -0.0866546 -0.0749778 0.0590323 -0.0719887 0.0382981 0.0514238 0.0394352 0.13893 0.0410964 -0.07108 -0.00236456 0.0504775 0.0593168 0.0320865 -0.104447 0.104248 -0.0248737 0.0725126 0.00208812 0.0236601 0.0225043 -0.154964 0.0375477 -0.0950824
21 -0.0992176 -0.0952309 0.0703868 -0.0861579 0.0395179 0.0778463 0.0164623 0.139115 0.0546275 -0.0864051 -0.0386406 0.0119559 0.0767941 0.0351415 -0.130341 0.111674 -0.00148485 0.0563847 -0.0090463 0.00536812 -0.011529 -0.157156 0.0381682 -0.0640616
28 -0.12665 -0.0951284 0.0800404 -0.111636 0.0519676 0.0747387 0.0113001 0.173351 0.0608605 -0.090784 -0.0432915 0.0419064 0.0587948 0.029476 -0.13806 0.14746 0.0017329 0.0867884 -0.0237978 0.0219835 -0.00111686 -0.201738 0.0524878 -0.115794
14 -0.178197 -0.169577 0.115492 -0.165594 0.0291635 0.114199 0.0278474 0.212431 0.0829831 -0.148605 -0.0326182 0.0559699 0.105596 0.0295169 -0.216293 0.209828 -0.0425205 0.0949822 -0.028712 0.0173315 0.00951943 -0.286741 0.0621745 -0.122285
1 -0.177622 -0.16578 0.0887654 -0.1257 0.0342114 0.119849 0.0618404 0.219652 0.0613106 -0.146451 -0.0322546 0.0378305 0.0876578 0.0356413 -0.1926 0.197587 -0.0120056 0.0962955 0.0135903 0.0375284 0.000659295 -0.306666 0.0565612 -0.120321
2 -0.217374 -0.175485 0.103727 -0.181895 0.0324031 0.152218 0.0694387 0.260166 0.0937 -0.140979 -0.0256834 0.0451848 0.131418 0.0376621 -0.248675 0.227333 -0.0281908 0.124977 0.0154052 0.0345048 0.00989121 -0.349438 0.0772461 -0.134238
20 -0.0599527 -0.0409791 0.00785734 -0.0682757 0.0337545 0.0482473 0.0148364 0.0882625 0.0242291 -0.028246 -0.0162995 0.038316 0.0259415 0.0288401 -0.0589277 0.087137 0.00105225 0.0607235 0.00924567 0.0095847 0.0240277 -0.107318 0.0127992 -0.0283764
22 -0.182829 -0.136809 0.0114303 -0.0989653 0.0177126 0.117622 0.0232072 0.154222 0.0403555 -0.118128 -0.0332771 0.0187861 0.096511 -0.00120592 -0.149472 0.15659 -0.00823801 0.124526 -0.0069211 0.00194329 0.0138915 -0.214933 0.0393794 -0.104904
11 -0.215592 -0.172376 0.020543 -0.108526 0.0352548 0.128626 0.0491608 0.212772 0.0598815 -0.139485 -0.0112403 0.0360787 0.115787 -0.00130738 -0.179759 0.185825 -0.01297 0.146942 0.0109891 0.00568578 0.0240786 -0.245364 0.0452885 -0.119606
24 -0.129643 -0.119236 0.0505703 -0.111057 0.017058 0.065544 0.0414523 0.14523 0.0410917 -0.081839 -0.0347535 0.0299862 0.0498905 0.0410669 -0.140787 0.141775 -0.00981191 0.0869821 0.0140195 0.0284055 -0.0100114 -0.21343 0.0563505 -0.100983
31 -0.104374 -0.0858289 0.0539152 -0.0862527 0.0114479 0.075782 0.00754085 0.146756 0.0189819 -0.0948763 -0.0375424 0.026252 0.0670064 0.0338541 -0.109327 0.11863 -0.0300897 0.0507794 -0.0191476 0.0122195 0.0174879 -0.168954 0.0381783 -0.0639302
19 -0.104741 -0.0613366 0.0453813 -0.0811269 0.00337262 0.0806197 0.0230269 0.101723 0.0509229 -0.0763666 -0.0160521 0.0261305 0.0484115 0.018006 -0.106882 0.110258 -0.00605966 0.0516381 -0.017712 -0.00608449 0.00107476 -0.141769 0.0230968 -0.0579453
5 -0.226755 -0.193502 0.0921303 -0.16789 0.042406 0.163112 0.050293 0.22342 0.0623567 -0.129396 -0.031681 0.0394513 0.106557 0.0493213 -0.220969 0.214907 -0.0446465 0.127056 0.0149522 0.0349902 0.02402 -0.323531 0.0766013 -0.121573
26 -0.217661 -0.186448 0.109078 -0.163876 0.0493577 0.166337 0.0444166 0.23911 0.0923697 -0.143036 -0.0252951 0.0738114 0.120113 0.0609394 -0.224554 0.207176 -0.0251792 0.119221 -0.0128482 0.0146016 -0.0100718 -0.315898 0.0672276 -0.131303
4 -0.295145 -0.242137 0.118288 -0.206662 0.0600257 0.183764 0.0627565 0.298246 0.0777599 -0.183378 -0.0672097 0.0936958 0.157367 0.0482544 -0.300619 0.268149 -0.023712 0.159194 0.0109306 0.0427594 0.0235068 -0.399609 0.0777881 -0.162792
30 -0.141911 -0.138793 0.0907283 -0.119758 0.0317854 0.102282 0.0469305 0.189143 0.0525629 -0.0872691 -0.019682 0.036258 0.0961336 0.0507403 -0.154981 0.148289 -0.0376968 0.0959471 -0.00583952 0.0357506 0.00454151 -0.259582 0.0541358 -0.103179
18 -0.157135 -0.106129 0.0064221 -0.08712 0.041957 0.0927891 0.0458096 0.150756 0.0545436 -0.0896959 -0.00451882 0.00279007 0.0530137 0.0148899 -0.145723 0.101969 -0.00465196 0.0823917 0.013028 0.0100015 0.0131184 -0.151003 0.043249 -0.0921369
23 -0.110872 -0.0899017 0.0585406 -0.0942904 0.0331903 0.0592778 0.0294025 0.130899 0.0226854 -0.0596667 -0.0270662 0.0381083 0.0502269 0.0257452 -0.118535 0.122698 0.00287338 0.0519876 -0.0118485 0.000692937 0.000812934 -0.17287 0.0402893 -0.0617659
6 -0.166421 -0.167573 0.0603588 -0.133574 0.0567033 0.113997 0.0210091 0.214152 0.0466964 -0.118349 -0.0315346 0.0319849 0.0828909 0.00837613 -0.194143 0.177374 -0.0322383 0.0962276 -0.00679484 0.0217589 0.000885151 -0.259734 0.0683101 -0.105891
10 -0.101377 -0.0593181 0.0675779 -0.0789721 0.0423353 0.0633634 0.00856653 0.123094 0.0484901 -0.0605276 -0.0200553 0.0129877 0.0633194 0.0248299 -0.12173 0.0952476 -0.00648542 0.0719126 0.0087904 -0.00937677 0.0187137 -0.174568 0.0354898 -0.0670154
25 -0.19622 -0.137138 0.0935701 -0.123016 0.0383929 0.119297 0.0454972 0.188728 0.0441011 -0.104149 -0.0484336 0.0626982 0.0799915 0.0442835 -0.187608 0.166547 -0.0179675 0.103477 -0.00440247 0.0288434 0.0153369 -0.282607 0.0521583 -0.131377
